0.06837866 0.22757081 0.66482471 0.46312987 0.07290161 0.19895118 0.66616016 0.46829882 0.07496543 0.16575211 0.66914918 0.47716474 0.07977208 0.12429091 0.67519866 0.48934816 0.08531389 0.07783033 0.68241078 0.50256423 0.09114137 0.03092791 0.69049837 0.51694892 0.10122984 -0.01945809 0.70069711 0.53405041 0.11277041 -0.06903401 0.71169728 0.55239586 0.12610614 -0.1163037 0.72483473 0.57311086 0.14327919 -0.16307495 0.74049632 0.59575339 0.16107869 -0.20505676 0.7576777 0.61858771 0.18003769 -0.24155621 0.77768683 0.64116009 0.20228634 -0.27297505 0.79931322 0.66449281 0.22789606 -0.29765826 0.82194103 0.68937898 0.25707274 -0.31633799 0.84808242 0.71752848 0.28782882 -0.32945834 0.87616046 0.74763354 0.32055324 -0.33795611 0.90533695 0.77804841 0.35580111 -0.34299179 0.93487703 0.81076359 0.39273416 -0.3462495 0.96551584 0.84392795 0.42974343 -0.34727714 0.99710933 0.87593896 0.46897951 -0.34453502 1.02983057 0.9094852 0.50990234 -0.33998215 1.06242911 0.9441983 0.54976023 -0.33353105 1.09467795 0.97800357 0.58973877 -0.32653366 1.12700268 1.0114703 0.62936203 -0.3179069 1.15953733 1.0410386 0.66694192 -0.31044556 1.19071304 1.06824578 0.70413296 -0.30346668 1.22036297 1.09367462 0.74062247 -0.2995099 1.24919636 1.11690237 0.77416616 -0.29766267 1.27673331 1.13739719 0.80755371 -0.2990861 1.30360642 1.15633569 0.84061033 -0.29955176 1.32895432 1.17281882 0.872373 -0.30271987 1.35338365 1.18923567 0.90329828 -0.30533192 1.37620988 1.20390829 0.93242985 -0.30707729 1.397149 1.21652283 0.96077229 -0.31157293 1.41544733 1.22872553 0.98802365 -0.31428111 1.43144708 1.23857026 1.01422468 -0.31543918 1.44625701 1.24685435 1.03973431 -0.31764355 1.45906837 1.25461276 1.06341564 -0.31910014 1.46984665 1.25941271 1.08580794 -0.32096772 1.47917111 1.26409888 1.10723542 -0.32029013 1.48716274 1.26678811 1.12754555 -0.31892347 1.49396947 1.26804143 1.14745064 -0.31914367 1.49853302 1.26813914 1.16586326 -0.31916119 1.50086775 1.26548294 1.18320611 -0.31688692 1.50275906 1.26121248 1.19966429 -0.31467405 1.50458818 1.25486906 1.21498445 -0.31146666 1.50531642 1.24700667 1.2286603 -0.30736906 1.50483415 1.23899789 1.24176934 -0.30402791 1.50380928 1.23155074 1.25502256 -0.30062048 1.50211541 1.22376432 