0.56349798 0.67002276 0.85663231 0.01357511 0.57156244 0.67597638 0.85507909 0.00696232 0.58435267 0.6847233 0.857939 -0.00197259 0.59803673 0.69574495 0.86135276 -0.01229429 0.61666587 0.70779822 0.86714 -0.024826 0.63687447 0.71938835 0.87227526 -0.03863872 0.6594958 0.73183607 0.87967532 -0.05461509 0.6855093 0.74540229 0.88870842 -0.0723532 0.71338434 0.75942831 0.89740462 -0.09213586 0.74200215 0.77435152 0.90960132 -0.11283575 0.76935486 0.78828534 0.9299094 -0.13413656 0.79843031 0.80454161 0.94763491 -0.1547526 0.82669293 0.81967517 0.9717617 -0.17654434 0.85498086 0.8335444 1.00138597 -0.19802214 0.88637749 0.84750132 1.03274996 -0.22047716 0.91738837 0.86153716 1.06632423 -0.24338199 0.94697785 0.87200144 1.1054815 -0.26604712 0.97590818 0.88275719 1.14606484 -0.28959027 1.00599333 0.89502036 1.18731641 -0.3122 1.03972036 0.90172617 1.23563423 -0.33521478 1.07627586 0.9061403 1.28591715 -0.35853061 1.1146592 0.91029857 1.33690419 -0.38076486 1.15424328 0.91066698 1.39009234 -0.40194756 1.1969832 0.91231692 1.44112084 -0.42423953 1.24272452 0.90489561 1.49617248 -0.44522028 1.29296398 0.88727893 1.55620235 -0.46626115 1.34652421 0.87022763 1.6141013 -0.4879616 1.4034589 0.84662951 1.67266056 -0.50853694 1.45800089 0.8234576 1.73227795 -0.52832427 1.5137879 0.79991734 1.7907334 -0.54596196 1.57248255 0.76615786 1.85000835 -0.56104976 1.63451182 0.71942179 1.91068002 -0.56996569 1.6969495 0.6649814 1.97153453 -0.57349296 1.75644419 0.61302607 2.02871081 -0.57453859 1.81335856 0.56635904 2.07984232 -0.57392693 1.86663227 0.52544758 2.12582161 -0.57074948 1.91596044 0.49268488 2.16400961 -0.56726477 1.95878353 0.4674172 2.19426261 -0.56335217 1.99348642 0.45109231 2.21686139 -0.55674977 2.02180887 0.4411167 2.23281065 -0.54937207 2.04218676 0.43602538 2.24133491 -0.5420339 2.05447218 0.43554474 2.24209268 -0.53350571 2.06193531 0.43758776 2.23704713 -0.5232864 2.06534158 0.44284444 2.22681766 -0.5125021 2.06484276 0.44821511 2.21192754 -0.50211264 2.05980399 0.45772644 2.195128 -0.49291838 2.05148979 0.46835207 2.17702013 -0.48448729 2.03980292 0.48099131 2.15857949 -0.47696279 2.02476324 0.49473967 2.13869678 -0.47022003 2.01256055 0.51212296 2.11959629 -0.46627558 