0.55844066 0.1179706 0.75055206 0.13726969 0.56777758 0.09689834 0.75935724 0.13410954 0.58234779 0.07231318 0.77202311 0.12434157 0.60215044 0.04211525 0.78853469 0.10878282 0.62500212 0.00304746 0.80890293 0.09319303 0.65185769 -0.04066823 0.83330857 0.07362511 0.68193591 -0.09405532 0.86232442 0.05243488 0.7142358 -0.15393964 0.89580197 0.03037539 0.74915042 -0.21718124 0.93338782 0.00562928 0.78568589 -0.27783402 0.97247387 -0.02291664 0.82223969 -0.34319301 1.01340327 -0.05079059 0.8571303 -0.40778271 1.0550493 -0.0777912 0.89000645 -0.47338413 1.097228 -0.10039741 0.92065944 -0.53369495 1.1396273 -0.1251766 0.9491651 -0.58658796 1.18055522 -0.14822494 0.9738241 -0.63058328 1.22021751 -0.17342157 0.99504064 -0.67114098 1.25652879 -0.19208975 1.01161111 -0.70575326 1.28889157 -0.20578076 1.02455676 -0.73013673 1.3177544 -0.21564661 1.0335516 -0.74213557 1.34333055 -0.22956006 1.04011863 -0.74588862 1.36599264 -0.24157923 1.04330923 -0.74512086 1.38605649 -0.24987696 1.04228429 -0.73884883 1.40220966 -0.2566662 1.03844192 -0.72616298 1.41637154 -0.26142886 1.03438808 -0.7092672 1.42899516 -0.26346916 1.03075916 -0.69193209 1.43884274 -0.2596609 1.02679977 -0.67103264 1.44576709 -0.2558819 1.02160058 -0.64777001 1.45236522 -0.2510062 1.01488517 -0.62265884 1.45851349 -0.24931825 1.00972021 -0.59737812 1.46304108 -0.24510868 1.004603 -0.56921044 1.46645185 -0.24323412 0.99983149 -0.54227261 1.46913579 -0.24029214 0.99728518 -0.51478149 1.47109236 -0.23705353 0.99524253 -0.49248089 1.47302417 -0.23053039 0.99479086 -0.46794746 1.4755001 -0.22669569 0.99588338 -0.44539374 1.47853899 -0.22207259 0.99879047 -0.42376727 1.48231891 -0.2197868 1.00250549 -0.40759934 1.48640443 -0.21621104 1.00680116 -0.3939027 1.49075523 -0.2167282 1.01211745 -0.37868509 1.49569146 -0.2194495 1.01866481 -0.36669335 1.50049539 -0.22484301 1.02685724 -0.35516348 1.5063619 -0.22983389 1.0369941 -0.34863913 1.51312124 -0.23087353 1.04868075 -0.34390004 1.52048884 -0.23380628 1.06266553 -0.33617293 1.52735405 -0.24126997 1.07857214 -0.32875467 1.53503664 -0.24746971 1.09533438 -0.32093078 1.5437918 -0.25436784 1.11346728 -0.31166759 1.55152007 -0.26124022 1.13119801 -0.30623112 1.55867083 -0.26557478 1.15000724 -0.29707071 1.56612213 -0.27187334 