0.30618132 0.22004886 0.1807586 0.50461307 0.30299528 0.20917093 0.18767315 0.50557596 0.29753508 0.19373138 0.1991941 0.50788788 0.29078984 0.17365414 0.21445553 0.50982211 0.28388416 0.14953971 0.23202871 0.51225629 0.27521788 0.12253398 0.2531766 0.51600955 0.26696413 0.09432746 0.27687279 0.52021755 0.25806602 0.06461054 0.30352651 0.5263241 0.2495841 0.03401765 0.33373556 0.53362175 0.24508513 0.00222136 0.36676355 0.54146404 0.24176848 -0.03152714 0.40252877 0.55102211 0.24395439 -0.06494279 0.43889228 0.56015171 0.24704476 -0.09892311 0.47788898 0.57133222 0.25283878 -0.13185892 0.51974869 0.58303531 0.26063642 -0.16288787 0.56435603 0.59670773 0.2723955 -0.18946139 0.61200752 0.61199631 0.28539078 -0.21397814 0.66200323 0.63036053 0.30148595 -0.23579419 0.7117943 0.64749379 0.32146476 -0.24979875 0.76164043 0.66437857 0.34622792 -0.25728079 0.81237598 0.682153 0.37125402 -0.26413181 0.86210536 0.70010311 0.39629704 -0.27026354 0.91244773 0.72005703 0.42282014 -0.2750448 0.96253126 0.73940229 0.44889796 -0.27924052 1.01339257 0.76086575 0.47610334 -0.28095611 1.06283474 0.78083716 0.50538311 -0.27931655 1.10978875 0.80068155 0.53360014 -0.28093665 1.15634911 0.82083642 0.56151011 -0.28216525 1.20200344 0.84144651 0.58874335 -0.28338329 1.24551909 0.86202683 0.61544564 -0.281335 1.28749568 0.88382061 0.64363786 -0.27392025 1.32641719 0.90442134 0.67071496 -0.26776943 1.36462037 0.92714169 0.69705701 -0.25892803 1.40064386 0.94965055 0.72239082 -0.25126374 1.43511579 0.97162238 0.74649985 -0.24688053 1.46784462 0.9937945 0.77095189 -0.2395079 1.49662674 1.01283632 0.79477512 -0.22959617 1.5219203 1.03017415 0.81795432 -0.21828303 1.54515813 1.04422058 0.84043669 -0.20751039 1.56629191 1.05714069 0.86228214 -0.19615486 1.5853709 1.06945238 0.88292939 -0.18318097 1.6027129 1.07995185 0.90281561 -0.169024 1.61755409 1.08802442 0.92098666 -0.15629738 1.6302178 1.09537273 0.93846364 -0.14502897 1.64173721 1.10184462 0.95538434 -0.13788544 1.65169453 1.1087826 0.972278 -0.13239865 1.65974791 1.11331779 0.98836609 -0.12925254 1.66629283 1.11754107 1.00407583 -0.12990248 1.66956606 1.12162522 1.01968433 -0.13291418 1.66971901 1.12465643 1.03388823 -0.14285616 1.67144357 1.13041186 